<?xml version="1.0"?>
<opencv_storage>
<cascade>
  <stageType>BOOST</stageType>
  <featureType>HAAR</featureType>
  <height>50</height>
  <width>50</width>
  <stageParams>
    <boostType>GAB</boostType>
    <minHitRate>9.9500000476837158e-01</minHitRate>
    <maxFalseAlarm>5.0000000000000000e-01</maxFalseAlarm>
    <weightTrimRate>9.4999999999999996e-01</weightTrimRate>
    <maxDepth>1</maxDepth>
    <maxWeakCount>100</maxWeakCount></stageParams>
  <featureParams>
    <maxCatCount>0</maxCatCount>
    <featSize>1</featSize>
    <mode>BASIC</mode></featureParams>
  <stageNum>4</stageNum>
  <stages>
    <!-- stage 0 -->
    <_>
      <maxWeakCount>3</maxWeakCount>
      <stageThreshold>-1.5502322912216187e+00</stageThreshold>
      <weakClassifiers>
        <_>
          <internalNodes>
            0 -1 11 -1.4281857758760452e-02</internalNodes>
          <leafValues>
            8.8571429252624512e-01 -9.8074001073837280e-01</leafValues></_>
        <_>
          <internalNodes>
            0 -1 2 2.4193925783038139e-02</internalNodes>
          <leafValues>
            -9.7925937175750732e-01 6.0523945093154907e-01</leafValues></_>
        <_>
          <internalNodes>
            0 -1 1 -3.6482922732830048e-03</internalNodes>
          <leafValues>
            4.0976709127426147e-01 -9.5430874824523926e-01</leafValues></_></weakClassifiers></_>
    <!-- stage 1 -->
    <_>
      <maxWeakCount>4</maxWeakCount>
      <stageThreshold>-2.3088278770446777e+00</stageThreshold>
      <weakClassifiers>
        <_>
          <internalNodes>
            0 -1 6 -1.3113251887261868e-02</internalNodes>
          <leafValues>
            8.5567009449005127e-01 -9.7173142433166504e-01</leafValues></_>
        <_>
          <internalNodes>
            0 -1 3 -6.1510682106018066e-02</internalNodes>
          <leafValues>
            6.9294136762619019e-01 -9.4616919755935669e-01</leafValues></_>
        <_>
          <internalNodes>
            0 -1 7 -2.6983635500073433e-02</internalNodes>
          <leafValues>
            5.5450224876403809e-01 -8.9861083030700684e-01</leafValues></_>
        <_>
          <internalNodes>
            0 -1 0 4.5746639370918274e-02</internalNodes>
          <leafValues>
            -8.8890027999877930e-01 5.0768369436264038e-01</leafValues></_></weakClassifiers></_>
    <!-- stage 2 -->
    <_>
      <maxWeakCount>4</maxWeakCount>
      <stageThreshold>-2.0564789772033691e+00</stageThreshold>
      <weakClassifiers>
        <_>
          <internalNodes>
            0 -1 9 -3.5961352288722992e-02</internalNodes>
          <leafValues>
            8.9010989665985107e-01 -9.6779066324234009e-01</leafValues></_>
        <_>
          <internalNodes>
            0 -1 10 9.1640595346689224e-03</internalNodes>
          <leafValues>
            -9.6791595220565796e-01 5.2480471134185791e-01</leafValues></_>
        <_>
          <internalNodes>
            0 -1 4 -2.5596413761377335e-02</internalNodes>
          <leafValues>
            9.4361764192581177e-01 -8.3255797624588013e-01</leafValues></_>
        <_>
          <internalNodes>
            0 -1 13 -1.6942556248977780e-03</internalNodes>
          <leafValues>
            7.1178567409515381e-01 -8.2702857255935669e-01</leafValues></_></weakClassifiers></_>
    <!-- stage 3 -->
    <_>
      <maxWeakCount>4</maxWeakCount>
      <stageThreshold>-2.3145759105682373e+00</stageThreshold>
      <weakClassifiers>
        <_>
          <internalNodes>
            0 -1 8 -2.7104197070002556e-02</internalNodes>
          <leafValues>
            7.5757575035095215e-01 -9.6867102384567261e-01</leafValues></_>
        <_>
          <internalNodes>
            0 -1 14 -8.8667050004005432e-03</internalNodes>
          <leafValues>
            5.5115884542465210e-01 -9.3671905994415283e-01</leafValues></_>
        <_>
          <internalNodes>
            0 -1 12 7.8370217233896255e-03</internalNodes>
          <leafValues>
            -8.8635307550430298e-01 5.8911329507827759e-01</leafValues></_>
        <_>
          <internalNodes>
            0 -1 5 7.0590823888778687e-02</internalNodes>
          <leafValues>
            -9.2158001661300659e-01 4.7716733813285828e-01</leafValues></_></weakClassifiers></_></stages>
  <features>
    <_>
      <rects>
        <_>
          2 5 7 45 -1.</_>
        <_>
          2 20 7 15 3.</_></rects>
      <tilted>0</tilted></_>
    <_>
      <rects>
        <_>
          2 8 4 8 -1.</_>
        <_>
          4 8 2 8 2.</_></rects>
      <tilted>0</tilted></_>
    <_>
      <rects>
        <_>
          5 14 24 3 -1.</_>
        <_>
          13 14 8 3 3.</_></rects>
      <tilted>0</tilted></_>
    <_>
      <rects>
        <_>
          6 8 23 15 -1.</_>
        <_>
          6 13 23 5 3.</_></rects>
      <tilted>0</tilted></_>
    <_>
      <rects>
        <_>
          6 10 5 12 -1.</_>
        <_>
          6 14 5 4 3.</_></rects>
      <tilted>0</tilted></_>
    <_>
      <rects>
        <_>
          7 2 21 24 -1.</_>
        <_>
          14 2 7 24 3.</_></rects>
      <tilted>0</tilted></_>
    <_>
      <rects>
        <_>
          19 24 12 2 -1.</_>
        <_>
          23 24 4 2 3.</_></rects>
      <tilted>0</tilted></_>
    <_>
      <rects>
        <_>
          21 14 9 24 -1.</_>
        <_>
          24 14 3 24 3.</_></rects>
      <tilted>0</tilted></_>
    <_>
      <rects>
        <_>
          22 9 5 12 -1.</_>
        <_>
          22 13 5 4 3.</_></rects>
      <tilted>0</tilted></_>
    <_>
      <rects>
        <_>
          22 18 6 12 -1.</_>
        <_>
          22 22 6 4 3.</_></rects>
      <tilted>0</tilted></_>
    <_>
      <rects>
        <_>
          23 26 5 9 -1.</_>
        <_>
          23 29 5 3 3.</_></rects>
      <tilted>0</tilted></_>
    <_>
      <rects>
        <_>
          24 19 3 12 -1.</_>
        <_>
          24 23 3 4 3.</_></rects>
      <tilted>0</tilted></_>
    <_>
      <rects>
        <_>
          24 26 4 9 -1.</_>
        <_>
          24 29 4 3 3.</_></rects>
      <tilted>0</tilted></_>
    <_>
      <rects>
        <_>
          42 46 8 4 -1.</_>
        <_>
          42 46 4 2 2.</_>
        <_>
          46 48 4 2 2.</_></rects>
      <tilted>0</tilted></_>
    <_>
      <rects>
        <_>
          44 23 2 18 -1.</_>
        <_>
          44 32 2 9 2.</_></rects>
      <tilted>0</tilted></_></features></cascade>
</opencv_storage>
